digraph Tree {
node [shape=box, style="filled, rounded", color="black", fontname=helvetica] ;
edge [fontname=helvetica] ;
0 [label="Petal Length <= 2.45\ngini = 0.67\nsamples = 120\nvalue = [40, 37, 43]\nclass = Virginica", fillcolor="#8139e50a"] ;
1 [label="gini = 0.0\nsamples = 40\nvalue = [40, 0, 0]\nclass = Setosa", fillcolor="#e58139ff"] ;
0 -> 1 [labeldistance=2.5, labelangle=45, headlabel="True"] ;
2 [label="Petal Width <= 1.75\ngini = 0.5\nsamples = 80\nvalue = [0, 37, 43]\nclass = Virginica", fillcolor="#8139e524"] ;
0 -> 2 [labeldistance=2.5, labelangle=-45, headlabel="False"] ;
3 [label="Sepal Length <= 4.95\ngini = 0.1\nsamples = 38\nvalue = [0, 36, 2]\nclass = Versicolor", fillcolor="#39e581f1"] ;
2 -> 3 ;
4 [label="gini = 0.0\nsamples = 1\nvalue = [0, 0, 1]\nclass = Virginica", fillcolor="#8139e5ff"] ;
3 -> 4 ;
5 [label="Sepal Width <= 2.25\ngini = 0.05\nsamples = 37\nvalue = [0, 36, 1]\nclass = Versicolor", fillcolor="#39e581f8"] ;
3 -> 5 ;
6 [label="Petal Width <= 1.25\ngini = 0.5\nsamples = 2\nvalue = [0, 1, 1]\nclass = Versicolor", fillcolor="#39e58100"] ;
5 -> 6 ;
7 [label="gini = 0.0\nsamples = 1\nvalue = [0, 1, 0]\nclass = Versicolor", fillcolor="#39e581ff"] ;
6 -> 7 ;
8 [label="gini = 0.0\nsamples = 1\nvalue = [0, 0, 1]\nclass = Virginica", fillcolor="#8139e5ff"] ;
6 -> 8 ;
9 [label="gini = 0.0\nsamples = 35\nvalue = [0, 35, 0]\nclass = Versicolor", fillcolor="#39e581ff"] ;
5 -> 9 ;
10 [label="Petal Length <= 4.85\ngini = 0.05\nsamples = 42\nvalue = [0, 1, 41]\nclass = Virginica", fillcolor="#8139e5f9"] ;
2 -> 10 ;
11 [label="Sepal Length <= 5.95\ngini = 0.44\nsamples = 3\nvalue = [0, 1, 2]\nclass = Virginica", fillcolor="#8139e57f"] ;
10 -> 11 ;
12 [label="gini = 0.0\nsamples = 1\nvalue = [0, 1, 0]\nclass = Versicolor", fillcolor="#39e581ff"] ;
11 -> 12 ;
13 [label="gini = 0.0\nsamples = 2\nvalue = [0, 0, 2]\nclass = Virginica", fillcolor="#8139e5ff"] ;
11 -> 13 ;
14 [label="gini = 0.0\nsamples = 39\nvalue = [0, 0, 39]\nclass = Virginica", fillcolor="#8139e5ff"] ;
10 -> 14 ;
}